digraph Tree {
node [shape=box] ;
0 [label="X[1] <= 2.5\ngini = 0.336\nsamples = 2988\nvalue = [639, 2349]"] ;
1 [label="X[0] <= 4.5\ngini = 0.303\nsamples = 1968\nvalue = [367, 1601]"] ;
0 -> 1 [labeldistance=2.5, labelangle=45, headlabel="True"] ;
2 [label="X[0] <= 1.5\ngini = 0.282\nsamples = 1231\nvalue = [209, 1022]"] ;
1 -> 2 ;
3 [label="X[1] <= 1.5\ngini = 0.365\nsamples = 196\nvalue = [47, 149]"] ;
2 -> 3 ;
4 [label="X[1] <= 0.5\ngini = 0.367\nsamples = 194\nvalue = [47, 147]"] ;
3 -> 4 ;
5 [label="gini = 0.404\nsamples = 32\nvalue = [9, 23]"] ;
4 -> 5 ;
6 [label="X[0] <= 0.5\ngini = 0.359\nsamples = 162\nvalue = [38, 124]"] ;
4 -> 6 ;
7 [label="gini = 0.305\nsamples = 16\nvalue = [3, 13]"] ;
6 -> 7 ;
8 [label="gini = 0.365\nsamples = 146\nvalue = [35, 111]"] ;
6 -> 8 ;
9 [label="gini = 0.0\nsamples = 2\nvalue = [0, 2]"] ;
3 -> 9 ;
10 [label="X[0] <= 2.5\ngini = 0.264\nsamples = 1035\nvalue = [162, 873]"] ;
2 -> 10 ;
11 [label="X[1] <= 1.5\ngini = 0.215\nsamples = 277\nvalue = [34, 243]"] ;
10 -> 11 ;
12 [label="gini = 0.142\nsamples = 182\nvalue = [14, 168]"] ;
11 -> 12 ;
13 [label="gini = 0.332\nsamples = 95\nvalue = [20, 75]"] ;
11 -> 13 ;
14 [label="X[1] <= 1.5\ngini = 0.281\nsamples = 758\nvalue = [128, 630]"] ;
10 -> 14 ;
15 [label="X[0] <= 3.5\ngini = 0.316\nsamples = 477\nvalue = [94, 383]"] ;
14 -> 15 ;
16 [label="gini = 0.381\nsamples = 121\nvalue = [31, 90]"] ;
15 -> 16 ;
17 [label="gini = 0.291\nsamples = 356\nvalue = [63, 293]"] ;
15 -> 17 ;
18 [label="X[0] <= 3.5\ngini = 0.213\nsamples = 281\nvalue = [34, 247]"] ;
14 -> 18 ;
19 [label="gini = 0.199\nsamples = 277\nvalue = [31, 246]"] ;
18 -> 19 ;
20 [label="gini = 0.375\nsamples = 4\nvalue = [3, 1]"] ;
18 -> 20 ;
21 [label="X[1] <= 1.5\ngini = 0.337\nsamples = 737\nvalue = [158, 579]"] ;
1 -> 21 ;
22 [label="X[0] <= 6.5\ngini = 0.347\nsamples = 550\nvalue = [123, 427]"] ;
21 -> 22 ;
23 [label="X[0] <= 5.5\ngini = 0.348\nsamples = 548\nvalue = [123, 425]"] ;
22 -> 23 ;
24 [label="gini = 0.347\nsamples = 546\nvalue = [122, 424]"] ;
23 -> 24 ;
25 [label="gini = 0.5\nsamples = 2\nvalue = [1, 1]"] ;
23 -> 25 ;
26 [label="gini = 0.0\nsamples = 2\nvalue = [0, 2]"] ;
22 -> 26 ;
27 [label="gini = 0.304\nsamples = 187\nvalue = [35, 152]"] ;
21 -> 27 ;
28 [label="X[0] <= 3.5\ngini = 0.391\nsamples = 1020\nvalue = [272, 748]"] ;
0 -> 28 [labeldistance=2.5, labelangle=-45, headlabel="False"] ;
29 [label="X[0] <= 1.5\ngini = 0.251\nsamples = 102\nvalue = [15, 87]"] ;
28 -> 29 ;
30 [label="X[0] <= 0.5\ngini = 0.355\nsamples = 26\nvalue = [6, 20]"] ;
29 -> 30 ;
31 [label="gini = 0.0\nsamples = 3\nvalue = [0, 3]"] ;
30 -> 31 ;
32 [label="X[1] <= 3.5\ngini = 0.386\nsamples = 23\nvalue = [6, 17]"] ;
30 -> 32 ;
33 [label="gini = 0.397\nsamples = 11\nvalue = [3, 8]"] ;
32 -> 33 ;
34 [label="gini = 0.375\nsamples = 12\nvalue = [3, 9]"] ;
32 -> 34 ;
35 [label="X[1] <= 3.5\ngini = 0.209\nsamples = 76\nvalue = [9, 67]"] ;
29 -> 35 ;
36 [label="X[0] <= 2.5\ngini = 0.108\nsamples = 35\nvalue = [2, 33]"] ;
35 -> 36 ;
37 [label="gini = 0.0\nsamples = 18\nvalue = [0, 18]"] ;
36 -> 37 ;
38 [label="gini = 0.208\nsamples = 17\nvalue = [2, 15]"] ;
36 -> 38 ;
39 [label="X[1] <= 4.5\ngini = 0.283\nsamples = 41\nvalue = [7, 34]"] ;
35 -> 39 ;
40 [label="X[0] <= 2.5\ngini = 0.271\nsamples = 31\nvalue = [5, 26]"] ;
39 -> 40 ;
41 [label="gini = 0.245\nsamples = 14\nvalue = [2, 12]"] ;
40 -> 41 ;
42 [label="gini = 0.291\nsamples = 17\nvalue = [3, 14]"] ;
40 -> 42 ;
43 [label="X[0] <= 2.5\ngini = 0.32\nsamples = 10\nvalue = [2, 8]"] ;
39 -> 43 ;
44 [label="gini = 0.5\nsamples = 2\nvalue = [1, 1]"] ;
43 -> 44 ;
45 [label="gini = 0.219\nsamples = 8\nvalue = [1, 7]"] ;
43 -> 45 ;
46 [label="X[1] <= 3.5\ngini = 0.403\nsamples = 918\nvalue = [257, 661]"] ;
28 -> 46 ;
47 [label="X[0] <= 4.5\ngini = 0.387\nsamples = 480\nvalue = [126, 354]"] ;
46 -> 47 ;
48 [label="gini = 0.432\nsamples = 38\nvalue = [12, 26]"] ;
47 -> 48 ;
49 [label="X[0] <= 5.5\ngini = 0.383\nsamples = 442\nvalue = [114, 328]"] ;
47 -> 49 ;
50 [label="gini = 0.384\nsamples = 436\nvalue = [113, 323]"] ;
49 -> 50 ;
51 [label="X[0] <= 6.5\ngini = 0.278\nsamples = 6\nvalue = [1, 5]"] ;
49 -> 51 ;
52 [label="gini = 0.0\nsamples = 1\nvalue = [0, 1]"] ;
51 -> 52 ;
53 [label="gini = 0.32\nsamples = 5\nvalue = [1, 4]"] ;
51 -> 53 ;
54 [label="X[0] <= 6.0\ngini = 0.419\nsamples = 438\nvalue = [131, 307]"] ;
46 -> 54 ;
55 [label="X[0] <= 4.5\ngini = 0.412\nsamples = 317\nvalue = [92, 225]"] ;
54 -> 55 ;
56 [label="X[1] <= 5.5\ngini = 0.425\nsamples = 242\nvalue = [74, 168]"] ;
55 -> 56 ;
57 [label="X[1] <= 4.5\ngini = 0.453\nsamples = 26\nvalue = [9, 17]"] ;
56 -> 57 ;
58 [label="gini = 0.454\nsamples = 23\nvalue = [8, 15]"] ;
57 -> 58 ;
59 [label="gini = 0.444\nsamples = 3\nvalue = [1, 2]"] ;
57 -> 59 ;
60 [label="gini = 0.421\nsamples = 216\nvalue = [65, 151]"] ;
56 -> 60 ;
61 [label="X[1] <= 4.5\ngini = 0.365\nsamples = 75\nvalue = [18, 57]"] ;
55 -> 61 ;
62 [label="gini = 0.363\nsamples = 63\nvalue = [15, 48]"] ;
61 -> 62 ;
63 [label="gini = 0.375\nsamples = 12\nvalue = [3, 9]"] ;
61 -> 63 ;
64 [label="X[1] <= 5.0\ngini = 0.437\nsamples = 121\nvalue = [39, 82]"] ;
54 -> 64 ;
65 [label="gini = 0.444\nsamples = 6\nvalue = [4, 2]"] ;
64 -> 65 ;
66 [label="gini = 0.423\nsamples = 115\nvalue = [35, 80]"] ;
64 -> 66 ;
}